digraph Tree {
node [shape=box] ;
0 [label="X[4] <= 443.0\ngini = 0.5\nsamples = 300\nvalue = [148, 152]"] ;
1 [label="X[4] <= 265.0\ngini = 0.498\nsamples = 232\nvalue = [124, 108]"] ;
0 -> 1 [labeldistance=2.5, labelangle=45, headlabel="True"] ;
2 [label="X[1] <= 0.5\ngini = 0.498\nsamples = 137\nvalue = [64, 73]"] ;
1 -> 2 ;
3 [label="X[3] <= 53.5\ngini = 0.393\nsamples = 26\nvalue = [7, 19]"] ;
2 -> 3 ;
4 [label="gini = 0.0\nsamples = 2\nvalue = [2, 0]"] ;
3 -> 4 ;
5 [label="X[0] <= 7.5\ngini = 0.33\nsamples = 24\nvalue = [5, 19]"] ;
3 -> 5 ;
6 [label="X[5] <= 1.5\ngini = 0.245\nsamples = 21\nvalue = [3, 18]"] ;
5 -> 6 ;
7 [label="gini = 0.0\nsamples = 1\nvalue = [1, 0]"] ;
6 -> 7 ;
8 [label="X[4] <= 141.5\ngini = 0.18\nsamples = 20\nvalue = [2, 18]"] ;
6 -> 8 ;
9 [label="X[4] <= 137.0\ngini = 0.32\nsamples = 10\nvalue = [2, 8]"] ;
8 -> 9 ;
10 [label="X[3] <= 341.0\ngini = 0.198\nsamples = 9\nvalue = [1, 8]"] ;
9 -> 10 ;
11 [label="gini = 0.0\nsamples = 7\nvalue = [0, 7]"] ;
10 -> 11 ;
12 [label="X[2] <= 0.5\ngini = 0.5\nsamples = 2\nvalue = [1, 1]"] ;
10 -> 12 ;
13 [label="gini = 0.0\nsamples = 1\nvalue = [0, 1]"] ;
12 -> 13 ;
14 [label="gini = 0.0\nsamples = 1\nvalue = [1, 0]"] ;
12 -> 14 ;
15 [label="gini = 0.0\nsamples = 1\nvalue = [1, 0]"] ;
9 -> 15 ;
16 [label="gini = 0.0\nsamples = 10\nvalue = [0, 10]"] ;
8 -> 16 ;
17 [label="X[3] <= 337.0\ngini = 0.444\nsamples = 3\nvalue = [2, 1]"] ;
5 -> 17 ;
18 [label="gini = 0.0\nsamples = 1\nvalue = [0, 1]"] ;
17 -> 18 ;
19 [label="gini = 0.0\nsamples = 2\nvalue = [2, 0]"] ;
17 -> 19 ;
20 [label="X[1] <= 1.5\ngini = 0.5\nsamples = 111\nvalue = [57, 54]"] ;
2 -> 20 ;
21 [label="X[5] <= 387.0\ngini = 0.305\nsamples = 16\nvalue = [13, 3]"] ;
20 -> 21 ;
22 [label="gini = 0.0\nsamples = 10\nvalue = [10, 0]"] ;
21 -> 22 ;
23 [label="X[5] <= 463.5\ngini = 0.5\nsamples = 6\nvalue = [3, 3]"] ;
21 -> 23 ;
24 [label="gini = 0.0\nsamples = 2\nvalue = [0, 2]"] ;
23 -> 24 ;
25 [label="X[6] <= 3.5\ngini = 0.375\nsamples = 4\nvalue = [3, 1]"] ;
23 -> 25 ;
26 [label="gini = 0.0\nsamples = 1\nvalue = [0, 1]"] ;
25 -> 26 ;
27 [label="gini = 0.0\nsamples = 3\nvalue = [3, 0]"] ;
25 -> 27 ;
28 [label="X[4] <= 70.5\ngini = 0.497\nsamples = 95\nvalue = [44, 51]"] ;
20 -> 28 ;
29 [label="X[1] <= 4.5\ngini = 0.458\nsamples = 31\nvalue = [20, 11]"] ;
28 -> 29 ;
30 [label="X[5] <= 234.0\ngini = 0.444\nsamples = 9\nvalue = [3, 6]"] ;
29 -> 30 ;
31 [label="X[3] <= 275.5\ngini = 0.375\nsamples = 4\nvalue = [3, 1]"] ;
30 -> 31 ;
32 [label="gini = 0.0\nsamples = 3\nvalue = [3, 0]"] ;
31 -> 32 ;
33 [label="gini = 0.0\nsamples = 1\nvalue = [0, 1]"] ;
31 -> 33 ;
34 [label="gini = 0.0\nsamples = 5\nvalue = [0, 5]"] ;
30 -> 34 ;
35 [label="X[0] <= 5.0\ngini = 0.351\nsamples = 22\nvalue = [17, 5]"] ;
29 -> 35 ;
36 [label="X[3] <= 12.5\ngini = 0.133\nsamples = 14\nvalue = [13, 1]"] ;
35 -> 36 ;
37 [label="X[1] <= 6.5\ngini = 0.5\nsamples = 2\nvalue = [1, 1]"] ;
36 -> 37 ;
38 [label="gini = 0.0\nsamples = 1\nvalue = [0, 1]"] ;
37 -> 38 ;
39 [label="gini = 0.0\nsamples = 1\nvalue = [1, 0]"] ;
37 -> 39 ;
40 [label="gini = 0.0\nsamples = 12\nvalue = [12, 0]"] ;
36 -> 40 ;
41 [label="X[3] <= 287.5\ngini = 0.5\nsamples = 8\nvalue = [4, 4]"] ;
35 -> 41 ;
42 [label="gini = 0.0\nsamples = 3\nvalue = [3, 0]"] ;
41 -> 42 ;
43 [label="X[5] <= 534.5\ngini = 0.32\nsamples = 5\nvalue = [1, 4]"] ;
41 -> 43 ;
44 [label="gini = 0.0\nsamples = 4\nvalue = [0, 4]"] ;
43 -> 44 ;
45 [label="gini = 0.0\nsamples = 1\nvalue = [1, 0]"] ;
43 -> 45 ;
46 [label="X[3] <= 38.5\ngini = 0.469\nsamples = 64\nvalue = [24, 40]"] ;
28 -> 46 ;
47 [label="gini = 0.0\nsamples = 8\nvalue = [0, 8]"] ;
46 -> 47 ;
48 [label="X[5] <= 525.0\ngini = 0.49\nsamples = 56\nvalue = [24, 32]"] ;
46 -> 48 ;
49 [label="X[4] <= 186.0\ngini = 0.471\nsamples = 50\nvalue = [19, 31]"] ;
48 -> 49 ;
50 [label="X[0] <= 1.5\ngini = 0.391\nsamples = 30\nvalue = [8, 22]"] ;
49 -> 50 ;
51 [label="X[3] <= 279.0\ngini = 0.48\nsamples = 5\nvalue = [3, 2]"] ;
50 -> 51 ;
52 [label="gini = 0.0\nsamples = 2\nvalue = [0, 2]"] ;
51 -> 52 ;
53 [label="gini = 0.0\nsamples = 3\nvalue = [3, 0]"] ;
51 -> 53 ;
54 [label="X[3] <= 72.5\ngini = 0.32\nsamples = 25\nvalue = [5, 20]"] ;
50 -> 54 ;
55 [label="gini = 0.0\nsamples = 1\nvalue = [1, 0]"] ;
54 -> 55 ;
56 [label="X[0] <= 4.5\ngini = 0.278\nsamples = 24\nvalue = [4, 20]"] ;
54 -> 56 ;
57 [label="gini = 0.0\nsamples = 8\nvalue = [0, 8]"] ;
56 -> 57 ;
58 [label="X[0] <= 5.5\ngini = 0.375\nsamples = 16\nvalue = [4, 12]"] ;
56 -> 58 ;
59 [label="X[3] <= 224.0\ngini = 0.49\nsamples = 7\nvalue = [3, 4]"] ;
58 -> 59 ;
60 [label="gini = 0.0\nsamples = 4\nvalue = [0, 4]"] ;
59 -> 60 ;
61 [label="gini = 0.0\nsamples = 3\nvalue = [3, 0]"] ;
59 -> 61 ;
62 [label="X[2] <= 6.5\ngini = 0.198\nsamples = 9\nvalue = [1, 8]"] ;
58 -> 62 ;
63 [label="gini = 0.0\nsamples = 8\nvalue = [0, 8]"] ;
62 -> 63 ;
64 [label="gini = 0.0\nsamples = 1\nvalue = [1, 0]"] ;
62 -> 64 ;
65 [label="X[2] <= 1.5\ngini = 0.495\nsamples = 20\nvalue = [11, 9]"] ;
49 -> 65 ;
66 [label="X[4] <= 222.5\ngini = 0.219\nsamples = 8\nvalue = [1, 7]"] ;
65 -> 66 ;
67 [label="gini = 0.0\nsamples = 1\nvalue = [1, 0]"] ;
66 -> 67 ;
68 [label="gini = 0.0\nsamples = 7\nvalue = [0, 7]"] ;
66 -> 68 ;
69 [label="X[5] <= 437.0\ngini = 0.278\nsamples = 12\nvalue = [10, 2]"] ;
65 -> 69 ;
70 [label="X[3] <= 119.5\ngini = 0.165\nsamples = 11\nvalue = [10, 1]"] ;
69 -> 70 ;
71 [label="X[6] <= 4.5\ngini = 0.444\nsamples = 3\nvalue = [2, 1]"] ;
70 -> 71 ;
72 [label="gini = 0.0\nsamples = 2\nvalue = [2, 0]"] ;
71 -> 72 ;
73 [label="gini = 0.0\nsamples = 1\nvalue = [0, 1]"] ;
71 -> 73 ;
74 [label="gini = 0.0\nsamples = 8\nvalue = [8, 0]"] ;
70 -> 74 ;
75 [label="gini = 0.0\nsamples = 1\nvalue = [0, 1]"] ;
69 -> 75 ;
76 [label="X[0] <= 0.5\ngini = 0.278\nsamples = 6\nvalue = [5, 1]"] ;
48 -> 76 ;
77 [label="gini = 0.0\nsamples = 1\nvalue = [0, 1]"] ;
76 -> 77 ;
78 [label="gini = 0.0\nsamples = 5\nvalue = [5, 0]"] ;
76 -> 78 ;
79 [label="X[5] <= 10.5\ngini = 0.465\nsamples = 95\nvalue = [60, 35]"] ;
1 -> 79 ;
80 [label="gini = 0.0\nsamples = 3\nvalue = [0, 3]"] ;
79 -> 80 ;
81 [label="X[5] <= 35.0\ngini = 0.454\nsamples = 92\nvalue = [60, 32]"] ;
79 -> 81 ;
82 [label="gini = 0.0\nsamples = 6\nvalue = [6, 0]"] ;
81 -> 82 ;
83 [label="X[5] <= 68.5\ngini = 0.467\nsamples = 86\nvalue = [54, 32]"] ;
81 -> 83 ;
84 [label="gini = 0.0\nsamples = 2\nvalue = [0, 2]"] ;
83 -> 84 ;
85 [label="X[4] <= 274.5\ngini = 0.459\nsamples = 84\nvalue = [54, 30]"] ;
83 -> 85 ;
86 [label="gini = 0.0\nsamples = 6\nvalue = [6, 0]"] ;
85 -> 86 ;
87 [label="X[3] <= 50.5\ngini = 0.473\nsamples = 78\nvalue = [48, 30]"] ;
85 -> 87 ;
88 [label="X[5] <= 193.0\ngini = 0.278\nsamples = 6\nvalue = [1, 5]"] ;
87 -> 88 ;
89 [label="gini = 0.0\nsamples = 1\nvalue = [1, 0]"] ;
88 -> 89 ;
90 [label="gini = 0.0\nsamples = 5\nvalue = [0, 5]"] ;
88 -> 90 ;
91 [label="X[1] <= 7.5\ngini = 0.453\nsamples = 72\nvalue = [47, 25]"] ;
87 -> 91 ;
92 [label="X[1] <= 2.5\ngini = 0.417\nsamples = 64\nvalue = [45, 19]"] ;
91 -> 92 ;
93 [label="X[4] <= 355.0\ngini = 0.482\nsamples = 32\nvalue = [19, 13]"] ;
92 -> 93 ;
94 [label="X[0] <= 2.5\ngini = 0.43\nsamples = 16\nvalue = [5, 11]"] ;
93 -> 94 ;
95 [label="X[3] <= 386.0\ngini = 0.48\nsamples = 5\nvalue = [3, 2]"] ;
94 -> 95 ;
96 [label="gini = 0.0\nsamples = 2\nvalue = [0, 2]"] ;
95 -> 96 ;
97 [label="gini = 0.0\nsamples = 3\nvalue = [3, 0]"] ;
95 -> 97 ;
98 [label="X[2] <= 8.5\ngini = 0.298\nsamples = 11\nvalue = [2, 9]"] ;
94 -> 98 ;
99 [label="gini = 0.0\nsamples = 8\nvalue = [0, 8]"] ;
98 -> 99 ;
100 [label="X[1] <= 1.0\ngini = 0.444\nsamples = 3\nvalue = [2, 1]"] ;
98 -> 100 ;
101 [label="gini = 0.0\nsamples = 2\nvalue = [2, 0]"] ;
100 -> 101 ;
102 [label="gini = 0.0\nsamples = 1\nvalue = [0, 1]"] ;
100 -> 102 ;
103 [label="X[6] <= 5.5\ngini = 0.219\nsamples = 16\nvalue = [14, 2]"] ;
93 -> 103 ;
104 [label="gini = 0.0\nsamples = 12\nvalue = [12, 0]"] ;
103 -> 104 ;
105 [label="X[4] <= 402.0\ngini = 0.5\nsamples = 4\nvalue = [2, 2]"] ;
103 -> 105 ;
106 [label="gini = 0.0\nsamples = 2\nvalue = [0, 2]"] ;
105 -> 106 ;
107 [label="gini = 0.0\nsamples = 2\nvalue = [2, 0]"] ;
105 -> 107 ;
108 [label="X[2] <= 3.5\ngini = 0.305\nsamples = 32\nvalue = [26, 6]"] ;
92 -> 108 ;
109 [label="X[1] <= 4.5\ngini = 0.494\nsamples = 9\nvalue = [5, 4]"] ;
108 -> 109 ;
110 [label="gini = 0.0\nsamples = 3\nvalue = [3, 0]"] ;
109 -> 110 ;
111 [label="X[5] <= 303.5\ngini = 0.444\nsamples = 6\nvalue = [2, 4]"] ;
109 -> 111 ;
112 [label="gini = 0.0\nsamples = 3\nvalue = [0, 3]"] ;
111 -> 112 ;
113 [label="X[0] <= 4.5\ngini = 0.444\nsamples = 3\nvalue = [2, 1]"] ;
111 -> 113 ;
114 [label="gini = 0.0\nsamples = 1\nvalue = [0, 1]"] ;
113 -> 114 ;
115 [label="gini = 0.0\nsamples = 2\nvalue = [2, 0]"] ;
113 -> 115 ;
116 [label="X[0] <= 0.5\ngini = 0.159\nsamples = 23\nvalue = [21, 2]"] ;
108 -> 116 ;
117 [label="gini = 0.0\nsamples = 1\nvalue = [0, 1]"] ;
116 -> 117 ;
118 [label="X[3] <= 94.0\ngini = 0.087\nsamples = 22\nvalue = [21, 1]"] ;
116 -> 118 ;
119 [label="X[5] <= 339.0\ngini = 0.444\nsamples = 3\nvalue = [2, 1]"] ;
118 -> 119 ;
120 [label="gini = 0.0\nsamples = 1\nvalue = [0, 1]"] ;
119 -> 120 ;
121 [label="gini = 0.0\nsamples = 2\nvalue = [2, 0]"] ;
119 -> 121 ;
122 [label="gini = 0.0\nsamples = 19\nvalue = [19, 0]"] ;
118 -> 122 ;
123 [label="X[5] <= 435.5\ngini = 0.375\nsamples = 8\nvalue = [2, 6]"] ;
91 -> 123 ;
124 [label="gini = 0.0\nsamples = 5\nvalue = [0, 5]"] ;
123 -> 124 ;
125 [label="X[6] <= 5.5\ngini = 0.444\nsamples = 3\nvalue = [2, 1]"] ;
123 -> 125 ;
126 [label="gini = 0.0\nsamples = 2\nvalue = [2, 0]"] ;
125 -> 126 ;
127 [label="gini = 0.0\nsamples = 1\nvalue = [0, 1]"] ;
125 -> 127 ;
128 [label="X[1] <= 2.5\ngini = 0.457\nsamples = 68\nvalue = [24, 44]"] ;
0 -> 128 [labeldistance=2.5, labelangle=-45, headlabel="False"] ;
129 [label="X[3] <= 526.0\ngini = 0.287\nsamples = 23\nvalue = [4, 19]"] ;
128 -> 129 ;
130 [label="X[5] <= 540.5\ngini = 0.236\nsamples = 22\nvalue = [3, 19]"] ;
129 -> 130 ;
131 [label="X[4] <= 470.0\ngini = 0.117\nsamples = 16\nvalue = [1, 15]"] ;
130 -> 131 ;
132 [label="X[5] <= 160.5\ngini = 0.444\nsamples = 3\nvalue = [1, 2]"] ;
131 -> 132 ;
133 [label="gini = 0.0\nsamples = 2\nvalue = [0, 2]"] ;
132 -> 133 ;
134 [label="gini = 0.0\nsamples = 1\nvalue = [1, 0]"] ;
132 -> 134 ;
135 [label="gini = 0.0\nsamples = 13\nvalue = [0, 13]"] ;
131 -> 135 ;
136 [label="X[5] <= 558.5\ngini = 0.444\nsamples = 6\nvalue = [2, 4]"] ;
130 -> 136 ;
137 [label="gini = 0.0\nsamples = 2\nvalue = [2, 0]"] ;
136 -> 137 ;
138 [label="gini = 0.0\nsamples = 4\nvalue = [0, 4]"] ;
136 -> 138 ;
139 [label="gini = 0.0\nsamples = 1\nvalue = [1, 0]"] ;
129 -> 139 ;
140 [label="X[4] <= 532.5\ngini = 0.494\nsamples = 45\nvalue = [20, 25]"] ;
128 -> 140 ;
141 [label="X[0] <= 2.5\ngini = 0.426\nsamples = 26\nvalue = [8, 18]"] ;
140 -> 141 ;
142 [label="gini = 0.0\nsamples = 9\nvalue = [0, 9]"] ;
141 -> 142 ;
143 [label="X[5] <= 188.0\ngini = 0.498\nsamples = 17\nvalue = [8, 9]"] ;
141 -> 143 ;
144 [label="gini = 0.0\nsamples = 4\nvalue = [4, 0]"] ;
143 -> 144 ;
145 [label="X[5] <= 369.5\ngini = 0.426\nsamples = 13\nvalue = [4, 9]"] ;
143 -> 145 ;
146 [label="gini = 0.0\nsamples = 5\nvalue = [0, 5]"] ;
145 -> 146 ;
147 [label="X[5] <= 552.5\ngini = 0.5\nsamples = 8\nvalue = [4, 4]"] ;
145 -> 147 ;
148 [label="X[1] <= 7.5\ngini = 0.32\nsamples = 5\nvalue = [4, 1]"] ;
147 -> 148 ;
149 [label="gini = 0.0\nsamples = 3\nvalue = [3, 0]"] ;
148 -> 149 ;
150 [label="X[4] <= 500.5\ngini = 0.5\nsamples = 2\nvalue = [1, 1]"] ;
148 -> 150 ;
151 [label="gini = 0.0\nsamples = 1\nvalue = [0, 1]"] ;
150 -> 151 ;
152 [label="gini = 0.0\nsamples = 1\nvalue = [1, 0]"] ;
150 -> 152 ;
153 [label="gini = 0.0\nsamples = 3\nvalue = [0, 3]"] ;
147 -> 153 ;
154 [label="X[4] <= 569.5\ngini = 0.465\nsamples = 19\nvalue = [12, 7]"] ;
140 -> 154 ;
155 [label="X[3] <= 505.5\ngini = 0.198\nsamples = 9\nvalue = [8, 1]"] ;
154 -> 155 ;
156 [label="gini = 0.0\nsamples = 8\nvalue = [8, 0]"] ;
155 -> 156 ;
157 [label="gini = 0.0\nsamples = 1\nvalue = [0, 1]"] ;
155 -> 157 ;
158 [label="X[6] <= 3.5\ngini = 0.48\nsamples = 10\nvalue = [4, 6]"] ;
154 -> 158 ;
159 [label="gini = 0.0\nsamples = 3\nvalue = [0, 3]"] ;
158 -> 159 ;
160 [label="X[6] <= 5.5\ngini = 0.49\nsamples = 7\nvalue = [4, 3]"] ;
158 -> 160 ;
161 [label="X[5] <= 439.5\ngini = 0.32\nsamples = 5\nvalue = [4, 1]"] ;
160 -> 161 ;
162 [label="gini = 0.0\nsamples = 4\nvalue = [4, 0]"] ;
161 -> 162 ;
163 [label="gini = 0.0\nsamples = 1\nvalue = [0, 1]"] ;
161 -> 163 ;
164 [label="gini = 0.0\nsamples = 2\nvalue = [0, 2]"] ;
160 -> 164 ;
}
